{
  "layers": [
    {
      "weights": [
        [
          0.666056389482911,
          -0.7857387384797236,
          0.8373003764684579,
          0.2301692110894118,
          -0.20472177654665313,
          -0.9642306633852378
        ],
        [
          -0.6139276000241107,
          0.6057215883895326,
          -0.9106216008918855,
          -0.9309522731591444,
          0.4255225751440501,
          -0.2428638629448172
        ],
        [
          -0.42002280847130335,
          -0.5005416297335483,
          0.8356803489018139,
          -0.27569362813321185,
          0.39578181609568874,
          -0.16044105966203803
        ],
        [
          0.7036694380754709,
          0.5852814892313747,
          -0.8470654855052453,
          0.6561110528542595,
          0.04961996568008842,
          -0.7493688018088107
        ],
        [
          0.8972356210807213,
          0.5083051668781071,
          -0.9555875571007091,
          -0.7758628494069078,
          -0.8136446701974887,
          0.003305306776259398
        ],
        [
          -0.5253388360722673,
          -0.40824135278876894,
          0.7391152656247824,
          -0.3121266782662082,
          0.38328520981085346,
          -0.7661931546321454
        ],
        [
          0.4023425292344258,
          -0.018119875155341303,
          -0.23950139079900423,
          -0.2768828432822503,
          -0.6648903290056749,
          -0.9142421874202309
        ],
        [
          -0.49301903190564933,
          -0.9136630882690573,
          0.7053001260063452,
          0.14116320427023177,
          0.7194101807551145,
          -0.21565582879677403
        ],
        [
          -0.8765332626199451,
          0.17045902927332368,
          -0.4470331438090285,
          0.1280190701056707,
          0.069227409402985,
          -0.8322454397856556
        ],
        [
          0.15584407576702186,
          0.5650384544975258,
          -0.03630783258646675,
          -0.2995161476870769,
          -0.9312492081304196,
          0.2762688910357247
        ]
      ],
      "bias": [
        0.17358269903500978,
        -0.5324138504069225,
        -0.09272176254358055,
        0.7033518454769561,
        0.32117505280929803,
        0.38564160889622356,
        -0.90641488437774,
        -0.6368911331819656,
        -0.6776065135039173,
        0.7097715210194278
      ]
    },
    {
      "weights": [
        [
          0.1546722275425909,
          0.870008988822597,
          -0.23357568086660674,
          0.2968877655441957,
          -0.3344121917153662,
          -0.5800755229496612,
          0.4746608021834413,
          -0.2735717514697338,
          -0.40731906719872923,
          -0.3752972184248409
        ],
        [
          -0.32657601195690056,
          0.11983636641554085,
          0.6936968761882765,
          -0.6554067111437194,
          0.8842249762628647,
          0.6436625175405952,
          -0.9631835758921174,
          0.6379642303164874,
          0.19635799726990788,
          0.14488538090096958
        ]
      ],
      "bias": [
        0.7664262507400001,
        -0.40235293308017495
      ]
    }
  ]
}