{
  "layers": [
    {
      "weights": [
        [
          -0.5228929175618546,
          0.1801347505151244,
          -0.28725870518320096,
          0.7564656120145843,
          0.5774510436176676,
          -1
        ],
        [
          -0.2961669773275708,
          -0.8777712963548931,
          0.39622612737820684,
          -0.5685557611185408,
          1,
          0.1082088429340069
        ],
        [
          0.38361383372332347,
          0.5131301621739413,
          0.8267377127263786,
          -0.37801242453844264,
          -0.047470341583745634,
          -0.49796965126313775
        ],
        [
          0.2688298830971956,
          -0.5619692861962242,
          0.06401954405811083,
          0.8962339453938049,
          0.15804148204816282,
          0.7556318552689553
        ],
        [
          -0.20820375946170544,
          -0.9431453629638951,
          0.5551019243740538,
          0.11340275239361941,
          0.1711076405781835,
          -0.2731435484263338
        ],
        [
          0.9863934843470035,
          0.4491964450428334,
          -0.22739337526314962,
          0.008870328352732049,
          -0.862725059462338,
          -0.9899716701881422
        ],
        [
          0.015566305285056536,
          0.22119119297838985,
          -0.7101402889927839,
          -0.07927614507683023,
          -0.7409168977662974,
          0.021129937649353003
        ],
        [
          -0.7019900371309065,
          0.8911921136693056,
          0.6757145133781768,
          -1,
          -1,
          -0.6222510848964979
        ],
        [
          0.07360762937982557,
          0.290998204246796,
          -0.8859949781753238,
          0.2657313238038548,
          0.3194784360533858,
          -0.5190347180491697
        ],
        [
          0.2077828038495506,
          -0.9556445149796768,
          -0.35115159244482497,
          -0.5873481803270619,
          0.8256600272213379,
          0.13807823950065123
        ]
      ],
      "bias": [
        -0.8592927347766648,
        0.5055643199585722,
        -0.8444668738261683,
        -0.1496366352974967,
        0.1855721046309411,
        -0.553584645723036,
        -0.18651632817224484,
        -0.09624544742837804,
        -0.510642530858451,
        0.6281338689976297
      ]
    },
    {
      "weights": [
        [
          -0.1644439542012741,
          -0.40166529054408284,
          0.67502303257798,
          -0.5303604631469725,
          -0.929985022396304,
          -0.10605723116779375,
          0.40261146377381385,
          0.4150971236006691,
          0.9295549445090596,
          -0.22539691687592645
        ],
        [
          0.6673099845092711,
          0.898131561357534,
          -0.8415761251337652,
          -0.6820294582505604,
          -0.4570039963226675,
          0.17997517367156468,
          0.7962427497045272,
          -0.664758594049834,
          0.060296190771901514,
          0.2526873149047668
        ]
      ],
      "bias": [
        -0.9599437759267802,
        0.4895888806032769
      ]
    }
  ]
}