{
  "layers": [
    {
      "weights": [
        [
          0.031297678614546076,
          0.9404870544095265,
          -0.4019382004604114,
          -0.1358532624955533,
          0.37133008315707416,
          0.9066225428023531
        ],
        [
          -0.9384770149090089,
          0.8093984468240562,
          -0.7572974632131357,
          0.5309619988338377,
          -0.36463279276380867,
          -0.8238516187060558
        ],
        [
          0.4130925184090432,
          0.806246623712946,
          0.7913178010764244,
          -0.11523684673259615,
          0.008103859469876573,
          -0.2111646624552847
        ],
        [
          -0.12680352519082172,
          -0.4272549350762418,
          0.9282601041620887,
          0.9299941194538628,
          -0.7895886179256479,
          -0.6736622059609858
        ],
        [
          -0.33604922062723325,
          -0.48821465312214807,
          -0.7050405876654582,
          -0.7256462688922509,
          -0.4069519742358192,
          0.3333610989834719
        ],
        [
          -0.48024256324814196,
          -0.4356967352818929,
          0.08021387171905103,
          0.1153508877060423,
          -0.8626320200724222,
          0.12959078709914906
        ],
        [
          0.5404322754062076,
          -1,
          -1,
          0.5770876977622486,
          0.49635958279940495,
          1
        ],
        [
          0.2510961306440832,
          -0.22723163846775896,
          0.7711321915035187,
          -0.5437643678989514,
          1,
          0.6000787902880802
        ],
        [
          -0.5045273992106818,
          -0.2754450889378951,
          0.8206420670518149,
          -0.07664926426428331,
          0.5025033639224414,
          -0.04674523352802373
        ],
        [
          0.22048424809850764,
          -0.20537659919034956,
          0.7131342696883582,
          0.1512148860718846,
          -0.1298431773171227,
          -0.3395637393231994
        ]
      ],
      "bias": [
        -0.1839559532910946,
        0.3427589357390266,
        -0.28681149018196317,
        -0.10506665971703844,
        -1.5542106762817718,
        -0.7479148701021152,
        -0.3077880079126638,
        -0.24317079437863987,
        -0.46525764115681034,
        -0.9132392801146663
      ]
    },
    {
      "weights": [
        [
          -0.13083809004226898,
          -0.8176446446649426,
          0.7542615959477553,
          0.11464868729807942,
          -0.7822069686378224,
          -0.020812262758131528,
          0.3821759465680852,
          -0.758914321068231,
          -0.0496580618857112,
          -0.3163826323685539
        ],
        [
          0.10862942778556994,
          -0.8281757541731563,
          0.7585425409535735,
          -1,
          -1,
          0.9516887442715676,
          -0.3974183100252471,
          -0.6095013379816363,
          1,
          -0.0334223807808498
        ]
      ],
      "bias": [
        0.34541258164705724,
        0.35202017718579215
      ]
    }
  ]
}