{
  "layers": [
    {
      "weights": [
        [
          0.532062138560491,
          -0.14033683828626864,
          -0.06691539049398387,
          1,
          0.31972346408306385,
          -0.4398844182356466
        ],
        [
          0.6449953206798581,
          -1,
          -0.338158865583858,
          -1,
          -1,
          -0.9204610845282186
        ],
        [
          -0.4338046417686818,
          0.8137840439794323,
          0.5468778441056713,
          0.9477966368157728,
          0.17091221357398534,
          -1
        ],
        [
          0.6931537183228835,
          0.7559055394822256,
          1,
          -0.347308221607072,
          -0.3820515732156251,
          -0.8198040856973144
        ],
        [
          -0.04471920318142053,
          -1,
          -1,
          -0.5522562893818962,
          -0.7534070931465989,
          0.3457269955758071
        ],
        [
          1,
          1,
          -0.4195686516944642,
          1,
          0.23834453226958574,
          -1
        ],
        [
          -0.862633045100382,
          0.3293334017660099,
          0.2251463976857379,
          -0.04627248808635537,
          0.38176180022991113,
          0.5398971162994495
        ],
        [
          1,
          0.7360283006949228,
          -0.34497367853109945,
          -0.22544677842111532,
          -0.4488172628913828,
          -1
        ],
        [
          -0.5264657158826734,
          1,
          -0.3403740471993094,
          -0.47932170593874845,
          1,
          -0.67054925750085
        ],
        [
          -0.05333231702854341,
          1,
          1,
          -0.8947184801245889,
          0.3122737391383198,
          -0.8802503156711488
        ]
      ],
      "bias": [
        8.765638832969456,
        7.91034519314562,
        5.902351924575158,
        -4.232313911087354,
        -7.561392488467441,
        4.696858383972885,
        2.1960041128942223,
        9.808648209266597,
        -2.082591681910037,
        7.23209062131985
      ]
    },
    {
      "weights": [
        [
          0.2916018378453983,
          -0.10965310629885627,
          -0.9510847128897556,
          0.681631635947092,
          0.51378189005156,
          -0.8690587945325534,
          -0.2780845490019995,
          0.07454736992694488,
          -1,
          0.2535278718220725
        ],
        [
          -0.0771396889627266,
          0.08594899348146723,
          -0.9794476799198144,
          0.848854245631327,
          -0.022010713714779584,
          0.19211923565063987,
          0.24401897408408263,
          -0.23171238994185106,
          -0.902473460029882,
          0.7293063346875619
        ]
      ],
      "bias": [
        0.2750850573344493,
        -1.9666587445048702
      ]
    }
  ]
}