{
  "layers": [
    {
      "weights": [
        [
          -0.7097527969183745,
          -0.23536714001882553,
          1.0,
          0.8004422866038312,
          -0.30858882472865046,
          1.0
        ],
        [
          -0.3555984719326952,
          1.0,
          1.0,
          -0.5428973731775725,
          0.569546014856282,
          -0.2997533892565909
        ],
        [
          -0.5113655418970264,
          -0.9811819675321083,
          -0.1435166084511773,
          -0.8322162467920291,
          0.9757567481036856,
          0.591219858414749
        ],
        [
          -0.210897985156566,
          0.6179935353461736,
          0.5695511860301642,
          -0.40730782210795535,
          -1,
          0.8776391051401201
        ],
        [
          -1,
          0.5411909685634865,
          -0.8076258699040672,
          -0.2859012394794191,
          0.18263303590299296,
          -0.2701625765432838
        ],
        [
          0.2495623182458243,
          -0.21996014529398744,
          0.7833677676723477,
          0.1585517527437657,
          -0.3285997663564222,
          -1
        ],
        [
          -0.36350949500601426,
          -1,
          -0.20004916112544313,
          0.4146314437455748,
          1.0,
          0.28255153593070625
        ],
        [
          -1,
          0.8125782478295418,
          -0.9609645473508246,
          -0.44880596123518957,
          -0.7928350508905136,
          -0.24052644840221338
        ],
        [
          0.5702997579901488,
          -0.29838356409189937,
          1.0,
          0.6586714662360916,
          1.0,
          0.6770896797444137
        ],
        [
          -0.7033709084915987,
          0.545340865996805,
          0.7765485363156654,
          -0.09904977773518953,
          -0.6917559530274225,
          0.8437505893562663
        ]
      ],
      "bias": [
        -6.052582039275066,
        -10,
        -3.2313506852955487,
        4.543592530458199,
        0.018402245868205158,
        2.1611030895065757,
        -9.881358653597534,
        7.884043383607674,
        -2.2726118582097934,
        5.895733003586
      ]
    },
    {
      "weights": [
        [
          0.2701502025375172,
          0.64274965387747,
          0.6923531987560906,
          -0.364801113974049,
          1.0,
          0.6564447990982311,
          -0.8448655532142076,
          -0.44839938855879885,
          -0.3228769811075058,
          -0.28750871879179396
        ],
        [
          0.2808015425119945,
          0.3957697099665376,
          1.0,
          0.417671836474217,
          -1,
          -0.21393441183499717,
          -1,
          0.7933442682356204,
          -0.35015528532038975,
          -0.06205912312307471
        ]
      ],
      "bias": [
        1.2256974064679622,
        -0.6346620256812627
      ]
    }
  ]
}