{
  "layers": [
    {
      "weights": [
        [
          -0.221879977614663,
          0.4680533663077679,
          -0.5889854284863041,
          0.6219098879857491,
          0.7471509288092104,
          -0.26806197888007305
        ],
        [
          0.48237486201196433,
          -0.20470745169403318,
          0.6765290759308894,
          0.3127994330504953,
          0.14214580357425552,
          -0.8088021317913985
        ],
        [
          -0.5971740745220719,
          -0.18662561284850968,
          0.6634688238314533,
          0.9754436707369996,
          -0.640195512279666,
          0.6258204931009268
        ],
        [
          0.05413222649270527,
          0.7561768765622278,
          0.9935591201182777,
          0.8771493328575959,
          0.3960838256294917,
          -0.4969978744255994
        ],
        [
          0.293433331892621,
          -0.6079466146969716,
          0.43060493805481415,
          0.8462806206324284,
          -0.02398586264206015,
          -0.3963175982959283
        ],
        [
          0.08586944235620037,
          -1,
          1.0,
          -0.14525267066533298,
          -0.33070792451198017,
          -0.13587963399067887
        ],
        [
          0.6470685130025333,
          -0.10654641745728655,
          0.11735013915860398,
          -0.4546300452036406,
          -1,
          0.16069745282034606
        ],
        [
          -0.9833153247732198,
          -0.8501527322147526,
          0.25389821740373897,
          0.02813657448371433,
          0.28728011821170507,
          0.43891391844670996
        ],
        [
          -0.6833111621118853,
          -0.6243315711493586,
          0.7399771358999294,
          0.6248573458566931,
          0.4270789323105592,
          -0.71307982678881
        ],
        [
          -0.43800758644128274,
          0.4101709954741598,
          -0.16003103048242096,
          -0.2941915111624725,
          -0.26620484146671314,
          -1
        ]
      ],
      "bias": [
        0.5496390368524942,
        0.3864039473920591,
        -1.1035678847825674,
        -4.263368463259779,
        3.5254634898379833,
        3.3478735067750405,
        1.217730753532428,
        0.14675594532587907,
        -3.7179149473216913,
        1.1703130130154162
      ]
    },
    {
      "weights": [
        [
          0.8875745592636881,
          -0.6923068711805178,
          -0.7756388227396127,
          0.09573342230218301,
          0.3017540864646322,
          0.35101518601095894,
          0.6257190215972359,
          -1,
          0.4564266634270783,
          0.016589228112695198
        ],
        [
          -1,
          -0.8639972072025865,
          -0.24407006397193948,
          -0.6501509831527316,
          -0.7125707818091579,
          -0.16949437411739826,
          1.0,
          -0.12923439016253613,
          -0.2695990865176974,
          -0.09550384063751578
        ]
      ],
      "bias": [
        -0.9484873107501537,
        -0.22201035218227544
      ]
    }
  ]
}