{
  "layers": [
    {
      "weights": [
        [
          1.414398063372746,
          -3.6061221089605677,
          1.1581528125706106,
          0.5696726914666639,
          2.647129556630981,
          -1.1296381500917134
        ],
        [
          6.088080851445335,
          -0.13047524961337864,
          3.3261761278527318,
          -0.6667274341328506,
          3.818136195531656,
          0.6190769736353926
        ],
        [
          -1.132359638425755,
          0.08648188632567111,
          2.801700406613211,
          -0.027185699927863405,
          -1.5990980041396803,
          0.15818364923278927
        ],
        [
          1.9228895000214135,
          -1.1172724075893545,
          0.7411318056423624,
          -1.1411808581735317,
          1.8838045038367988,
          -2.0657493317882123
        ],
        [
          -0.5585199662536919,
          -0.23702275063043382,
          2.1069292146499157,
          3.166813770756631,
          -0.3492719912336774,
          -3.577927233423845
        ],
        [
          -1.770626334551958,
          0.8916592941032975,
          -3.2343526172001713,
          0.6148141718673025,
          3.20745364503349,
          -1.6820027001625828
        ],
        [
          -3.7513734591653893,
          2.9165118738956073,
          -1.3610285793932038,
          -4.396750918790781,
          3.158118961721738,
          1.375152721430192
        ],
        [
          1.1660078825500115,
          -2.0307438371409487,
          0.4330239252127789,
          -2.3178789947702905,
          -0.7281909819390643,
          -0.5325322759972793
        ],
        [
          2.4340067987512617,
          -0.9759940768837221,
          1.4208502171648842,
          1.9465022910091245,
          -0.8393404115114342,
          -0.4197734735443457
        ],
        [
          -0.37610075261244785,
          -1.3836555696580204,
          0.5642053662234462,
          1.512412900595361,
          -0.543575958389189,
          2.0989227242520236
        ]
      ],
      "bias": [
        0.8305526270635702,
        -0.23049898362612592,
        -4.299057276832022,
        0.6378868359378361,
        -0.3006661401165363,
        -4.532251884946692,
        -2.580450428687979,
        -0.3341671738022809,
        -2.113809357167413,
        -5.163017665920239
      ]
    },
    {
      "weights": [
        [
          0.9351478497622508,
          -1.9801015519052205,
          -0.10691825819736306,
          3.158465439751379,
          0.6036041902072786,
          2.787551951376571,
          -0.5782609227671729,
          -0.06952784535528428,
          -1.8808404754582724,
          -0.4045857181584298
        ],
        [
          -0.4608657005055898,
          -0.7559761870850439,
          -3.8779142195184106,
          6.220152463300408,
          -0.5978431327840208,
          -1.7011014689175878,
          0.46625907858003224,
          -0.5177745989360237,
          1.309517804417466,
          -4.376648550563395
        ]
      ],
      "bias": [
        -3.299117798997484,
        1.1135929148310715
      ]
    }
  ]
}