{
  "layers": [
    {
      "weights": [
        [
          -0.8150671678681172,
          -0.35777858252259437,
          0.23526611224757832,
          -0.08301097795226803,
          0.8671929693411987,
          -0.5252242357548058
        ],
        [
          -0.230274047397368,
          -0.8393901812278265,
          -0.43961813768740965,
          0.8226357832820788,
          -0.0848375573502107,
          -0.4898097858107401
        ],
        [
          0.1733995564492174,
          0.38911750488140173,
          -0.6537008640433348,
          1,
          -0.9523830707012659,
          0.7727934174012585
        ],
        [
          0.8905625248045874,
          -0.11024113470747521,
          -0.16964475776793853,
          -0.20847070780312482,
          -1,
          0.21560006795109404
        ],
        [
          -0.7171143659087178,
          0.5152600402241583,
          -0.13834010208149122,
          -0.17165874151756016,
          0.6707282931376612,
          -0.6858353918249096
        ],
        [
          0.7878231033328331,
          0.4841914077756926,
          -0.45758393753253723,
          0.8982123405931552,
          -0.5084226750202427,
          -0.6232029375210126
        ],
        [
          -0.9780880498192617,
          0.32983283784386064,
          0.7432459425938185,
          0.23327926663260734,
          0.6453576103376218,
          -0.7768554515432513
        ],
        [
          -0.94261634102322,
          -0.29752165927083524,
          0.7636829582101011,
          -0.3498506386348119,
          -0.5333553184959512,
          1.0
        ],
        [
          0.5236217834528132,
          0.33471647498543544,
          -0.5842781972562022,
          -1,
          0.6187671374652988,
          -0.07806043296454579
        ],
        [
          -0.2160788621285057,
          -0.036873823461544886,
          -0.8995468385312204,
          -0.9974738113728588,
          -0.6714764461496419,
          0.15269183648818485
        ]
      ],
      "bias": [
        -0.4011291673317744,
        0.10435105292834146,
        0.03996243483378609,
        -0.0711961864356746,
        -0.4312177025570788,
        -0.18624372982115778,
        0.37971556809090334,
        0.8603122079726288,
        -0.8945088350771353,
        0.5827738100170765
      ]
    },
    {
      "weights": [
        [
          0.4934249312203731,
          -0.8329280353326808,
          -0.7962866447308475,
          -0.637020475533044,
          0.04682468878009416,
          0.345944680545395,
          -0.2843654904265449,
          -0.30132805268379537,
          -1,
          -0.4271233815132649
        ],
        [
          0.6137810138749402,
          0.6714447510840648,
          0.6850422375357197,
          0.23528938250459197,
          -0.42564112109582597,
          0.39499628604641,
          0.7195361512249733,
          -0.9376714429320268,
          0.6758489859492938,
          -0.31662706271539753
        ]
      ],
      "bias": [
        -0.5283763055738699,
        -0.5346514835997572
      ]
    }
  ]
}