{
  "layers": [
    {
      "weights": [
        [
          -0.5194710501511595,
          0.8832990456871266,
          -0.6050191548456073,
          0.6226926213119885,
          -0.009580526839722242,
          0.16792955347889335
        ],
        [
          0.7709843337777541,
          0.5589013053531582,
          0.8388498728882318,
          0.5529690892593374,
          0.17140543253086912,
          -0.7103064057749561
        ],
        [
          -0.2550903095566801,
          -0.6838686362932584,
          0.9091789517783699,
          0.4223848331359359,
          -0.9153698463784004,
          0.5672661572093615
        ],
        [
          0.253447361009577,
          0.5276350713705281,
          0.9584284983010851,
          0.0720624522668965,
          0.9331322972563775,
          -0.6460218506350278
        ],
        [
          -0.11079388588243866,
          -0.29915115353300703,
          0.3496107614072287,
          -0.3389108500771456,
          0.2572671182044227,
          -0.7560494301775097
        ],
        [
          -0.1557370451301832,
          -0.683364698320017,
          0.5925389344867943,
          0.18373754348571647,
          -0.696138713387971,
          -0.5346649475560484
        ],
        [
          0.841141836167463,
          0.21177954246019373,
          -0.10307357125276692,
          -0.9055493206745655,
          -0.865461436879316,
          0.536425227701562
        ],
        [
          -0.751618399074422,
          -1,
          0.9649401264994196,
          0.9165701761458915,
          -0.1505017961169994,
          0.9256601401237408
        ],
        [
          -1,
          -0.6911165398730656,
          0.8899800958688838,
          -0.7156829542467353,
          0.5111675378664003,
          -0.30684793037938474
        ],
        [
          -0.12946378424144342,
          0.8625151124801912,
          -0.5311006368702466,
          -0.5107283512853875,
          -0.2586959892554858,
          0.012355182062529974
        ]
      ],
      "bias": [
        0.3226332388547919,
        -0.45467265568219084,
        -1.9049867925676254,
        -4.671530070358121,
        3.424345949947153,
        2.8982685950538385,
        1.492192556577382,
        -0.2645583550089165,
        -3.252787502080498,
        1.2495629143278246
      ]
    },
    {
      "weights": [
        [
          0.8929557246556873,
          -0.5701719216811709,
          -0.8740714096721623,
          -0.0792234226704108,
          -1,
          1,
          0.77569357852012,
          -0.5613752358617798,
          0.38231617386456995,
          0.044434637927240894
        ],
        [
          -0.5280352545496387,
          -0.6296898783106238,
          -0.23939048164944896,
          -0.6647015407985358,
          -1,
          0.163548426814284,
          0.652481387549309,
          0.7577056124573966,
          0.10225510613399513,
          -0.22920941126729213
        ]
      ],
      "bias": [
        -1.5930564700147674,
        0.15446296899392792
      ]
    }
  ]
}