{
  "layers": [
    {
      "weights": [
        [
          0.32605968728081225,
          -1,
          0.6058142449697641,
          -1,
          0.07642485519404463,
          1
        ],
        [
          -0.4644080493782855,
          -0.024790575684259797,
          0.46178040111377106,
          -0.10440996713271822,
          0.48851795254420427,
          -1
        ],
        [
          -0.5591364796369752,
          -0.4806837983205813,
          0.5939301553265781,
          0.940991327223311,
          -0.518002931444609,
          0.1681295884423743
        ],
        [
          -0.37542765122180277,
          0.39597446283778925,
          0.07291784607516166,
          0.6466557636396049,
          -0.16676981829331722,
          0.6500956165219609
        ],
        [
          0.4847582012874215,
          -1,
          -0.7051978723973965,
          -1,
          0.12862438383341607,
          -0.8261961298446872
        ],
        [
          0.4378160510400946,
          -0.5369236232467168,
          -0.49201407456158025,
          -0.06908088603321799,
          0.7026587637837954,
          0.2248633652715425
        ],
        [
          0.4544323977086548,
          0.37459125121198356,
          0.6960287906974703,
          0.494640804303565,
          -0.4050385123021555,
          -0.05328886464351523
        ],
        [
          0.06824821945301751,
          0.481641451452421,
          0.9934919157915287,
          0.49170703886920664,
          -0.42312413669942417,
          -0.9151787440969954
        ],
        [
          -1,
          1,
          -0.3723814313571797,
          -0.6169778636603201,
          0.11225278022008145,
          -0.4526635079670499
        ],
        [
          -0.8153278131112182,
          1,
          0.5987918821960256,
          -0.4477985072005194,
          0.8983258962198198,
          1
        ]
      ],
      "bias": [
        0.39912607489765195,
        1.966333542687912,
        -1.0123348944878219,
        -0.7767865769042656,
        -0.2610839207464692,
        1.3718701618719988,
        0.528353695081153,
        0.849339030107447,
        -1.9665616612548593,
        0.7554724870087937
      ]
    },
    {
      "weights": [
        [
          0.45031712644527133,
          -0.8571587338754088,
          1,
          -0.7574036579705625,
          0.3542063844166936,
          -0.1921181596532423,
          -0.5602241912372032,
          -0.49907725856803253,
          0.6098902656622659,
          -1
        ],
        [
          -0.39232766428400656,
          -0.8609630400480102,
          -0.27398534009973197,
          -0.11466972649696805,
          0.48191300571251666,
          -0.7945934658725187,
          -0.3090627696073691,
          0.9470319590775849,
          0.5209927020474643,
          -0.5900367295424489
        ]
      ],
      "bias": [
        -0.10614455132204892,
        -0.5729934202694591
      ]
    }
  ]
}