{
  "layers": [
    {
      "weights": [
        [
          -0.012207333595142922,
          0.44489893893096877,
          0.45432675042466064,
          0.2669402697246601,
          0.7867911371690786,
          -0.7584921902425972
        ],
        [
          0.6633202572147052,
          0.705462810158352,
          -0.30828892004151154,
          -0.8749739112318673,
          -0.3835807583469495,
          0.4246393923849585
        ],
        [
          -0.8386124609795937,
          -0.9963554460854593,
          0.41281188882048747,
          -0.5713133105659538,
          -0.11108394857151738,
          0.7268129328477957
        ],
        [
          0.672583214649493,
          -0.762459932027145,
          -0.5185688173950387,
          -0.8327185465602411,
          0.9436347639217386,
          -0.5209570059125876
        ],
        [
          -0.02660688542129508,
          -0.7104988037358955,
          -0.7836297697560144,
          0.8423682313860805,
          0.4133874783978424,
          -0.033321190189099514
        ],
        [
          -0.35749721367575105,
          0.5643980527855632,
          -0.06408049220877787,
          -0.8186108111410066,
          -0.030306716766147268,
          0.9206900130753952
        ],
        [
          -0.8132214652003371,
          0.7121466231713658,
          0.7445094053458472,
          0.05587418755657669,
          0.21546862924410637,
          0.2465455359605464
        ],
        [
          -0.3110803922044403,
          -0.1694187500455302,
          -0.6396175519175786,
          -0.06504764273422059,
          0.8592100118937123,
          -0.5368150726519594
        ],
        [
          0.6448344727152089,
          -0.7703147185058059,
          -0.6169322125111718,
          -0.405546687470391,
          0.14613491184139327,
          0.023254013208346525
        ],
        [
          -0.10084677092031802,
          -0.9335393041031179,
          0.800697827717507,
          0.18317924926692286,
          0.05095514169121329,
          -0.6316655043131376
        ]
      ],
      "bias": [
        0.2401159837148843,
        -0.7486461115367422,
        -0.791879542249883,
        0.04729681356894355,
        -0.7846555144847494,
        -0.7264066943709522,
        -0.030085360601850075,
        -0.3361361665817131,
        0.9328032368671586,
        0.03495157200455945
      ]
    },
    {
      "weights": [
        [
          -0.58099247597618,
          -0.9213339394395088,
          0.6896953655241855,
          -0.6803190345666748,
          -0.6426268834040147,
          0.3291963515531251,
          -0.02680293981987303,
          -0.9810277351697543,
          0.2923775616718549,
          0.23093602279612924
        ],
        [
          -0.3045107247513099,
          -0.8550459283317613,
          -0.0386854521281399,
          -0.028983445494448645,
          0.6465108546208307,
          -0.13184696311397603,
          -0.06421273277678896,
          0.0076997809475256584,
          -0.47867403621131266,
          -0.5596275928778425
        ]
      ],
      "bias": [
        -0.8931294735819562,
        0.6631117240624778
      ]
    }
  ]
}