{
  "layers": [
    {
      "weights": [
        [
          -0.33756728299106975,
          0.8795727502475467,
          -0.6643986792626915,
          0.8520866577697382,
          -0.2544387444162094,
          -0.11341422399351686
        ],
        [
          0.7467636951280613,
          0.5531497257985918,
          0.4062934964539879,
          0.698260692388426,
          0.24799625241393325,
          -0.843279550738437
        ],
        [
          -0.4645168446869885,
          -0.7325236734038065,
          1.0,
          0.758842918322148,
          -0.8321284237457128,
          0.8727023603428087
        ],
        [
          0.23573571721397107,
          0.7339211107748903,
          0.8615281968190835,
          -0.020101068677196066,
          0.8393164468058758,
          -0.7372373102912831
        ],
        [
          -0.08562560987641099,
          -0.4409611221856627,
          0.35993074690685256,
          -0.3488356603921847,
          0.3513889824626112,
          -0.6557041387230439
        ],
        [
          -0.1169220186974231,
          -0.8554803808368175,
          0.3617367445808681,
          0.1959665341985079,
          -0.5211195964054631,
          -0.7444098452413583
        ],
        [
          0.6774371826046623,
          0.4396105923681025,
          -0.5178360358379447,
          -0.8500878610584944,
          -0.8568697340709188,
          0.6224330491777882
        ],
        [
          -0.9926084977964938,
          -0.9805956295625649,
          0.6899314741539636,
          1.0,
          0.04348674635489369,
          0.899883653842141
        ],
        [
          -0.9738897450379254,
          -0.7187714883011571,
          1.0,
          -0.750433003469992,
          0.5047262944041069,
          -0.2716209457959126
        ],
        [
          -0.2504288260970172,
          0.8020463187660257,
          -0.5444000442588612,
          -0.5044960710417272,
          -0.2890248024745979,
          -0.0504771827602726
        ]
      ],
      "bias": [
        0.08266223277203608,
        -0.15834764178244645,
        -1.6782516334033273,
        -4.546789962156057,
        3.421122413129171,
        2.900332572486304,
        1.36352867249059,
        -0.1915846451649321,
        -3.2656101450894854,
        1.277957309937314
      ]
    },
    {
      "weights": [
        [
          0.696501515986454,
          -0.7576822728056276,
          -0.9940140978735457,
          -0.21606392519924175,
          -0.8397702862649532,
          1.0,
          1.0,
          -0.5913402847511321,
          0.6201368988819508,
          0.05966597205973603
        ],
        [
          -0.7750651395276132,
          -0.6961538070148161,
          -0.10041266137772845,
          -1,
          -0.6757549894932412,
          0.1706009317977539,
          0.9203601958317653,
          0.6411623244741969,
          -0.015984713760709486,
          -0.49315474933894554
        ]
      ],
      "bias": [
        -1.6703354086232902,
        0.03429414322744849
      ]
    }
  ]
}