{
  "layers": [
    {
      "weights": [
        [
          -0.9455121384534624,
          0.6585150574051526,
          0.6049634023202345,
          0.36243656325468454,
          -0.183144087449941
        ],
        [
          -0.05030918553908515,
          0.7684832720004431,
          -0.940510685353946,
          0.2148624676011106,
          -0.5669392652895517
        ],
        [
          0.0889658346539356,
          0.10032142583745325,
          -0.6185046552177927,
          -0.870138556645506,
          0.3751562601447698
        ],
        [
          0.8058139207072934,
          -0.8178459991890314,
          0.8576124164901427,
          0.9277670667922374,
          0.16131569251828287
        ],
        [
          -0.35380118278429856,
          -0.9047304659554669,
          0.25662135259125896,
          -0.5359003785068003,
          -0.5898367536889683
        ],
        [
          -0.4069447708398988,
          0.7300682525354518,
          -0.8697512944932788,
          -0.5891206799884273,
          0.6281398751712547
        ],
        [
          0.05100183918138832,
          0.1099924404853104,
          -0.5077823708973439,
          0.8201806974845676,
          0.22726698732216633
        ],
        [
          -0.9863632921569934,
          0.8469440198027604,
          -0.9545935202439313,
          -0.35165998019436123,
          0.6411551087089581
        ],
        [
          0.908195591971674,
          -0.46305509129920464,
          -0.951648699889825,
          -0.583090888365498,
          -0.5102895013398445
        ],
        [
          -0.5284565618020042,
          -0.6325470117839512,
          -0.46666571753283437,
          0.3094565122023336,
          0.889009475590597
        ]
      ],
      "bias": [
        -0.9026799628579618,
        -1.2686659642201668,
        -1.2414952998384174,
        -1.2093783967723755,
        0.43495296823781177,
        -1.099676375919396,
        -0.9336234190382067,
        1.0858900975260637,
        -0.5192961827127086,
        -2.562406792207532
      ]
    },
    {
      "weights": [
        [
          -0.030325425481005606,
          -0.986579426728815,
          0.9302751460703192,
          -1,
          0.32280714789537535,
          0.4016267074650983,
          0.7605186583392897,
          0.025783208989027712,
          0.9682498984470064,
          -0.9938144073934111
        ],
        [
          -0.9609957036083544,
          -0.34902937591668576,
          -0.8536475843605899,
          -0.631819095890594,
          -0.1369380964457509,
          -0.464857130724984,
          0.0036905321132627844,
          -0.7907895523077284,
          -0.4605947835930751,
          -0.06928745094068403
        ]
      ],
      "bias": [
        -0.26071196381426587,
        -1.7169149179283258
      ]
    }
  ]
}