{
  "layers": [
    {
      "weights": [
        [
          -0.11433073522346876,
          0.3420420276080686,
          0.8149640253518771,
          -0.5337273576203396,
          0.9583252109495334
        ],
        [
          0.6450655167827174,
          -0.8806787244047916,
          -0.8718729227367717,
          -0.3832289434237425,
          0.5852816373907408
        ],
        [
          -1,
          -0.0714674253986203,
          -0.6538456264933686,
          0.5326128665094836,
          -0.5724986883704493
        ],
        [
          0.5565807653794248,
          0.47996539981807673,
          -0.6088593969141765,
          0.5916256932334512,
          -0.8023276620574569
        ],
        [
          -0.5511819712287492,
          -0.3835955899865189,
          0.9397001965672975,
          0.8653401014880185,
          0.7238140712091555
        ],
        [
          -0.8980379607287796,
          -0.3647090311890594,
          -0.13713113777917244,
          0.9748569742312861,
          0.4603476138405765
        ],
        [
          0.8216116647097153,
          -0.9439479689869837,
          -0.827486364876507,
          0.6531685137362775,
          -0.8328823112310595
        ],
        [
          -0.04695190805405296,
          0.8681008943841865,
          -0.05525153003615334,
          0.6680834671042906,
          -0.9164484437131161
        ],
        [
          -0.6835468691343249,
          0.5586763976083096,
          -0.06399691915227312,
          0.9521370618088729,
          -0.5304957104034671
        ],
        [
          -0.3442423348567128,
          -0.7573247215903754,
          0.4690550100996149,
          0.8871208167730348,
          0.4798862229472429
        ]
      ],
      "bias": [
        0.03345038874698472,
        0.09101338540319981,
        0.800170974004344,
        -0.42978721926622593,
        0.4759409141405742,
        0.8234759265578143,
        -0.08738706209368893,
        0.9139777411940566,
        0.4985803433127682,
        -1.14654382437218
      ]
    },
    {
      "weights": [
        [
          0.1679240495133124,
          0.8541515577751618,
          0.6376186918175162,
          -0.04733523605414633,
          -0.7086028144429174,
          -0.15886286132405886,
          0.7608337584780196,
          0.7424826176160535,
          -0.30418555635300915,
          0.433468001193609
        ],
        [
          0.7899710623276495,
          -0.19348657130305352,
          -0.9171418194546156,
          -0.8467753428052743,
          -0.8499554137439734,
          0.35907509002110216,
          0.4915441943259631,
          0.6300506531809485,
          -0.31298029261990373,
          -0.11399044215211154
        ]
      ],
      "bias": [
        1.218410046787244,
        1.375457637546513
      ]
    }
  ]
}