{
  "layers": [
    {
      "weights": [
        [
          -0.9376020245950433,
          0.6585150574051526,
          0.6174302602110134,
          0.36243656325468454,
          -0.18749210458708268
        ],
        [
          -0.05030918553908515,
          0.7539536684693362,
          -0.940510685353946,
          0.24788643501224095,
          -0.5147083852272671
        ],
        [
          0.03389265961871735,
          0.05920479829029934,
          -0.5688734372600504,
          -0.8825331093339893,
          0.3656914751372457
        ],
        [
          0.7894892451080084,
          -0.767458496476092,
          0.9429116688640925,
          0.9019687917380314,
          0.16131569251828287
        ],
        [
          -0.35380118278429856,
          -0.8657564590966417,
          0.24450790983773618,
          -0.5564277702743742,
          -0.5586298531078289
        ],
        [
          -0.4069447708398988,
          0.7727596518959859,
          -0.8299424815458016,
          -0.5891206799884273,
          0.6211186297048682
        ],
        [
          0.05100183918138832,
          0.10981407856164249,
          -0.5077823708973439,
          0.8692084667686082,
          0.24188141299025662
        ],
        [
          -0.956698937749702,
          0.8547435885150764,
          -0.8817444406128396,
          -0.3574471421587538,
          0.6151530041175847
        ],
        [
          0.908195591971674,
          -0.4797754894605604,
          -0.9123747020969162,
          -0.583090888365498,
          -0.5604340077522025
        ],
        [
          -0.5201247718948644,
          -0.5854297220213444,
          -0.47032967737310793,
          0.3094565122023336,
          0.8665391520273891
        ]
      ],
      "bias": [
        -0.8144897605274315,
        -1.2686659642201668,
        -1.2792717163091747,
        -1.196431722346279,
        0.4085468514937033,
        -1.099676375919396,
        -0.9336234190382067,
        1.1117198987027066,
        -0.5192961827127086,
        -2.5600195870092146
      ]
    },
    {
      "weights": [
        [
          -0.033272727539751884,
          -0.986579426728815,
          0.8720517157438558,
          -0.9793081504099156,
          0.37218902508627266,
          0.4016267074650983,
          0.7450435412546923,
          0.06552107244415449,
          0.9494173583916571,
          -0.9855120181215619
        ],
        [
          -0.9541205978040467,
          -0.38167988886493276,
          -0.8536475843605899,
          -0.631819095890594,
          -0.1369380964457509,
          -0.5030669972640036,
          0.01550031663977379,
          -0.7922002736386362,
          -0.4489993160366688,
          -0.1134572918985505
        ]
      ],
      "bias": [
        -0.25176375800961825,
        -1.720247152124976
      ]
    }
  ]
}