{
  "layers": [
    {
      "weights": [
        [
          -1,
          -0.44874035772129983,
          -0.21877076394851136,
          0.20436654733996418,
          0.8143764929085836,
          -0.22344013760721226
        ],
        [
          -1,
          -0.8096034805771001,
          -0.7260978157041775,
          1.0,
          -0.03598472836203631,
          -0.2833342675542852
        ],
        [
          0.12478179819676855,
          -0.09727058316910947,
          -0.15139522656311521,
          0.8681312045398267,
          -0.6453993256224644,
          1.0
        ],
        [
          0.6369473643883383,
          0.008903231172181059,
          0.26743825691040307,
          -0.4305213862785058,
          -0.8591604922548128,
          0.8055375730559893
        ],
        [
          -0.673339717426336,
          0.6533281731463754,
          -0.3935832560707915,
          -0.6055846408876095,
          0.3452221505042895,
          -1
        ],
        [
          0.5262616135730891,
          0.6942699609334368,
          -0.5724412888478491,
          1.0,
          -0.2869760066567098,
          -0.8265241821818476
        ],
        [
          -0.9706271798671025,
          -0.2769625641447175,
          1.0,
          0.19418600762608007,
          0.5970663599950867,
          -0.9255174499080541
        ],
        [
          -0.7580659001646787,
          -0.25728625497033486,
          0.7868293051162756,
          -0.3498506386348119,
          -0.5339302488919822,
          0.8981441474334105
        ],
        [
          0.6948163528232882,
          0.5605646607640993,
          -1,
          -1,
          0.1895729638659473,
          0.2851079217241423
        ],
        [
          -0.36325662480446586,
          -0.21201105568767822,
          -0.730215875050982,
          -0.9881364780352855,
          -0.6714764461496419,
          -0.8651294145670032
        ]
      ],
      "bias": [
        0.2944092688789967,
        0.22260646842901033,
        0.2140662655472522,
        -0.1798571720307746,
        -0.5444943095142916,
        0.10812922559910437,
        0.3284632977579607,
        0.9323589781822619,
        -0.7701810138899827,
        0.08906943587536889
      ]
    },
    {
      "weights": [
        [
          0.9744348437019532,
          -0.854100230511911,
          -0.13497065030123928,
          -0.932363755905768,
          -0.3205944119018336,
          0.345944680545395,
          -0.4456878208216173,
          -0.5501034793044881,
          -1,
          -1
        ],
        [
          1.0,
          0.30778144436738536,
          0.5498274245959227,
          0.17900820231717954,
          -0.31347632127241093,
          0.6620857151101045,
          0.5377449367461602,
          -0.6756969380167757,
          0.8891227674810155,
          -0.909218876661886
        ]
      ],
      "bias": [
        -0.21694931075308777,
        0.457242915554089
      ]
    }
  ]
}