{
  "layers": [
    {
      "weights": [
        [
          0.7649960446172216,
          -0.472697578033189,
          -1,
          -0.28691511032353867,
          0.5459548330390371,
          0.4789106077834926
        ],
        [
          -0.098488496601768,
          0.16907332312275947,
          -0.6448546288610816,
          0.6044491050064553,
          -0.13559830056265948,
          -1
        ],
        [
          0.5631402047169285,
          0.2520676769585162,
          0.46319199418875745,
          0.13588573869353904,
          -0.7474971786704177,
          0.6666002868171539
        ],
        [
          1.0,
          0.49044118762922795,
          -0.2797335626281794,
          -0.31136990788565955,
          0.6401914234043659,
          0.027973477321660334
        ],
        [
          0.6211397755073331,
          -0.20654707411514972,
          0.2909526680760267,
          0.5681836142131406,
          0.0007080468817791674,
          0.7573775433628642
        ],
        [
          1.0,
          -0.7967537191818547,
          -0.22169651679267574,
          0.21050179619244225,
          -0.5630106196676053,
          0.18485739143716395
        ],
        [
          -0.5635467166317865,
          1.0,
          0.2978703769114277,
          -0.6920102210573352,
          -1,
          -1
        ],
        [
          1.0,
          1.0,
          -0.45339122489154726,
          0.563716484041967,
          -0.17165235394629275,
          0.5362712627020317
        ],
        [
          0.11821191498821493,
          0.6500188452260034,
          0.19932419657466582,
          0.47124851269156975,
          0.6010591203885027,
          0.6923627570955965
        ],
        [
          -0.22441352598391007,
          -0.7264530284146773,
          -0.4736170199516064,
          -0.042954167979157964,
          -0.514837961143362,
          1.0
        ]
      ],
      "bias": [
        0.19915449294881205,
        -1.3540360753734264,
        0.5716940229109183,
        -0.285731451069862,
        -0.13638095431623093,
        -1.5381656449922185,
        1.4345735323444804,
        0.032935567510000874,
        1.6638540895756724,
        0.10810951686524078
      ]
    },
    {
      "weights": [
        [
          -1,
          0.1251410393507491,
          1,
          -0.4577677972994052,
          0.06766884106730436,
          0.09594372626714975,
          1.0,
          -0.7258901807965287,
          0.1984000713113323,
          -0.23584440012456676
        ],
        [
          -0.027720689258916742,
          0.2192702804334613,
          -0.015757012740440723,
          -0.36068663164886483,
          1.0,
          -1,
          0.060015881057991605,
          0.7795454617832992,
          0.8808225639111603,
          -0.4523353281061394
        ]
      ],
      "bias": [
        -1.3820645603005988,
        -0.3888936792563388
      ]
    }
  ]
}