{
  "layers": [
    {
      "weights": [
        [
          0.37843584697689486,
          -0.9333579983079819,
          0.712444902484323,
          0.553659515250355,
          0.7207827521745808,
          -0.043196464355334585
        ],
        [
          -0.8445968404345647,
          -0.6591144968244705,
          -0.29568460694561893,
          0.5649881925646776,
          0.6039962460384043,
          -0.8390805525564456
        ],
        [
          -0.2328789532735976,
          0.22154031537453192,
          0.2881420043521922,
          0.6776562789030715,
          -1,
          0.8474565524624602
        ],
        [
          0.04986315037046196,
          0.5693756063238286,
          0.628124560320532,
          -0.5840999649325616,
          -0.6298524857566606,
          -0.16871114853579286
        ],
        [
          -0.49188880059737533,
          0.2615265337209841,
          0.3546807269182944,
          -0.6881344130159631,
          0.326753947299387,
          0.4130142221602877
        ],
        [
          -0.12860691104464803,
          0.3559283278570292,
          -0.4224999637478289,
          0.4357349370171637,
          -0.4386199608788301,
          -0.6638986911346174
        ],
        [
          -1,
          0.015556687780149986,
          0.9554167205131301,
          0.06441305614100862,
          0.15169819239368132,
          -0.7762465840124939
        ],
        [
          -0.2968402110974894,
          -0.7300633878831995,
          0.9061910117150028,
          0.08850197688821437,
          -0.07760524480781444,
          0.941312726330999
        ],
        [
          0.8812003297325997,
          1.0,
          -0.680325329484791,
          -0.7695378379441826,
          -0.27576134771184446,
          -0.5177843611378761
        ],
        [
          -0.5968986990721754,
          -0.979814179113069,
          -0.7972206917983578,
          -0.16230866698035573,
          -0.6782124784664009,
          -0.7830108443935901
        ]
      ],
      "bias": [
        -0.793020046538127,
        1.1943983174358064,
        0.20947682078594518,
        0.3369022630918723,
        -0.23983072563535987,
        -0.5123127346980418,
        0.07200707911705007,
        0.5709338794500627,
        -0.8939706788262927,
        0.03641661296045587
      ]
    },
    {
      "weights": [
        [
          0.8444526084082911,
          -1,
          -0.6606624107636361,
          -0.5398446102914467,
          -0.7434269826805935,
          -0.15404120536926175,
          -0.244301863206354,
          -0.7450010467865089,
          -0.38007141099255587,
          -0.32706189088541143
        ],
        [
          1.0,
          0.6492996130313049,
          1.0,
          -0.1506358029040512,
          0.4975388298863636,
          0.8609238612281078,
          0.07129335752659022,
          0.15222528214408143,
          1.0,
          -0.5798882835432702
        ]
      ],
      "bias": [
        -0.7672063289950843,
        0.6770332190397994
      ]
    }
  ]
}