{
  "layers": [
    {
      "weights": [
        [
          0.22604491085384337,
          -0.6499666625236732,
          -1,
          1.0,
          0.3472346220524578,
          -0.02283165249372665
        ],
        [
          1.0,
          -0.6163985213866421,
          0.06867528683451862,
          1,
          1.0,
          -0.1979951188630631
        ],
        [
          -1,
          -0.7926188926111776,
          1.0,
          -0.23611641003531136,
          -0.11446867229017643,
          0.9125273246657009
        ],
        [
          -1,
          0.6361572546839422,
          0.3266189799759903,
          0.27326237655132163,
          1.0,
          1
        ],
        [
          0.7728968552682256,
          -0.015787236769527424,
          1.0,
          -1,
          1.0,
          -0.026018149781301125
        ],
        [
          -1,
          0.6280098250042765,
          0.5569389028605272,
          0.5194613525300587,
          -0.6421349929077802,
          -0.3294968842816972
        ],
        [
          0.9266183507331331,
          0.12289293437169702,
          0.4426077333020688,
          -1,
          -0.26553899943415993,
          -0.5069135523672689
        ],
        [
          -0.7691628889617326,
          0.17009590537160046,
          1,
          1,
          -0.7632280454193849,
          1
        ],
        [
          -0.9598682626181433,
          0.1086712134766179,
          -0.5785486266625909,
          0.07287993187582242,
          0.1654479245611563,
          0.69704176116971
        ],
        [
          -1,
          0.9017402538816894,
          -0.6011043889530369,
          -0.5424083595816847,
          1.0,
          -1
        ]
      ],
      "bias": [
        -0.3831993124828583,
        -2.596518279469755,
        -0.46645028015124623,
        -3.2676438555668796,
        2.380794624482003,
        1.5635268089982084,
        2.999195785446102,
        -0.36598015334907696,
        -2.337811382996589,
        1.957904297102364
      ]
    },
    {
      "weights": [
        [
          1,
          0.3680497638158258,
          -0.2789500023653195,
          0.0785053342559543,
          -0.7450059027492473,
          0.16987959017899878,
          -1,
          -0.9856079544128757,
          0.9821552234713629,
          1.0
        ],
        [
          -0.3519883418128089,
          -0.7569901073076104,
          0.2581708058539177,
          -0.7172578339871382,
          -0.7084096866101888,
          -0.14331275072310268,
          -0.16548897177815142,
          0.3303024327666456,
          0.30120760481112796,
          -0.8365542123147841
        ]
      ],
      "bias": [
        -1.7123780049719908,
        0.042796566086698906
      ]
    }
  ]
}